
#ifndef AUDIO_MODEL_DATA_H
#define AUDIO_MODEL_DATA_H

static const int audio_layer_dims[4] = {10, 32, 16, 5};

static const float audio_w0[320] = {
    -4.12311763e-01f, 3.24676365e-01f, -3.09020132e-01f, 4.87772711e-02f, 3.99680018e-01f, -8.38577300e-02f, -3.87985647e-01f, -4.11742955e-01f,
    -4.91084121e-02f, 5.24435699e-01f, -1.75560445e-01f, 7.03806162e-01f, -1.69430785e-02f, 1.23539007e+00f, -9.28938866e-01f, -2.66792834e-01f,
    -5.45122921e-01f, -5.35302982e-02f, 9.31594223e-02f, 1.14132178e+00f, -5.44614755e-02f, 5.52730560e-01f, -5.10248005e-01f, -2.44350269e-01f,
    2.77859777e-01f, -7.96820223e-01f, -6.20945930e-01f, 6.50178194e-02f, -3.69965851e-01f, 2.23183408e-02f, -1.10973048e+00f, -1.84983805e-01f,
    -1.20066158e-01f, -9.41195637e-02f, 5.49281687e-02f, 7.51941428e-02f, -6.46090865e-01f, 2.65422910e-01f, -6.19358242e-01f, 1.66924987e-02f,
    3.14695299e-01f, 4.13282886e-02f, 4.43520039e-01f, -5.59192657e-01f, 1.11550272e+00f, -6.53095126e-01f, -1.23318446e+00f, -6.92451954e-01f,
    1.34541988e+00f, 3.37585539e-01f, -8.60013783e-01f, 5.89244068e-01f, 8.22389722e-01f, -7.59161949e-01f, 6.56565368e-01f, -7.89649636e-02f,
    2.41344467e-01f, 5.26437044e-01f, 5.06301343e-01f, -3.94448377e-02f, -2.53493905e-01f, 8.69916603e-02f, 6.50735438e-01f, -1.07825875e-01f,
    -7.58670419e-02f, 1.42688721e-01f, -5.72761893e-01f, 4.53228444e-01f, 1.76870022e-02f, 1.06565557e-01f, 1.15815319e-01f, 4.09463644e-01f,
    4.06935632e-01f, -3.11720639e-01f, -1.33743092e-01f, 4.49066967e-01f, 1.68625582e-02f, -5.10255545e-02f, 1.86644658e-01f, 2.08034620e-01f,
    6.88484550e-01f, -2.29850411e-01f, 1.16520569e-01f, 6.27929091e-01f, -3.56697917e-01f, -4.57961321e-01f, 2.39159718e-01f, 1.71943977e-01f,
    1.66004732e-01f, 3.06320876e-01f, -6.68221265e-02f, 1.36877406e+00f, 7.75975168e-01f, -1.54355809e-01f, 6.75960958e-01f, -1.02900125e-01f,
    2.63467968e-01f, -3.46825793e-02f, -8.35942924e-01f, -1.19260006e-01f, 9.63944793e-02f, 3.09027404e-01f, -3.75741780e-01f, 3.70305091e-01f,
    4.29608256e-01f, -5.92037559e-01f, 6.16190173e-02f, 4.21778440e-01f, 6.63161755e-01f, -7.22720802e-01f, -4.24463689e-01f, 5.78803718e-01f,
    -3.47057939e-01f, 2.84406215e-01f, 1.29611567e-01f, -1.35921896e-01f, -1.12301731e+00f, 4.46934700e-01f, -2.78500140e-01f, -2.85651028e-01f,
    2.95444787e-01f, 3.90764512e-03f, -3.60807292e-02f, -9.44329873e-02f, -1.21659130e-01f, -2.62127757e-01f, 1.33592919e-01f, -1.84356570e-01f,
    -2.69032657e-01f, -7.14809727e-03f, 4.43549931e-01f, -4.86792594e-01f, -2.86059022e-01f, 2.73516355e-03f, -5.02755523e-01f, -2.86157906e-01f,
    -1.29786706e+00f, 6.84708118e-01f, 1.30123556e-01f, -7.92945027e-01f, 9.15294327e-03f, 3.26290727e-02f, -1.72119930e-01f, -4.49928254e-01f,
    4.59653169e-01f, 5.09659886e-01f, -4.88336444e-01f, 1.74284279e-01f, -3.32061321e-01f, -4.81626987e-01f, -3.70384812e-01f, 2.75260448e-01f,
    -4.42232996e-01f, 7.93470666e-02f, -1.05791998e+00f, 3.71295422e-01f, -3.89128059e-01f, 6.68535531e-02f, -9.12793040e-01f, 1.16506636e+00f,
    8.11814189e-01f, -1.25232196e+00f, 8.69227529e-01f, 9.83622596e-02f, 1.86168492e-01f, 1.80368185e-01f, 5.60693026e-01f, -2.17727929e-01f,
    -3.03437859e-01f, -5.03459990e-01f, -3.09687704e-01f, -1.45492271e-01f, -2.33465746e-01f, -3.82305801e-01f, -3.81768227e-01f, 2.88866669e-01f,
    -6.09775364e-01f, 4.57769185e-01f, 7.92930499e-02f, -3.04326296e-01f, -6.28754735e-01f, 5.86968958e-01f, -7.89685071e-01f, 1.21880502e-01f,
    -3.91807631e-02f, -1.12861298e-01f, -3.27731252e-01f, -2.74600834e-01f, 1.13664448e+00f, 5.53497314e-01f, 5.72577059e-01f, 4.85014796e-01f,
    2.03733608e-01f, 3.95082176e-01f, 1.29434347e-01f, 1.22237539e+00f, 6.55862093e-01f, 1.07522912e-01f, 2.34015256e-01f, -4.56772149e-02f,
    9.94945109e-01f, -4.07149732e-01f, 4.36887681e-01f, 3.45825166e-01f, -5.07771254e-01f, 6.29530922e-02f, -1.23097157e+00f, 5.55982113e-01f,
    8.54666054e-01f, -2.36633435e-01f, -2.72927493e-01f, -1.27028987e-01f, 3.60768169e-01f, 4.40925837e-01f, 8.03777158e-01f, 6.10761702e-01f,
    2.02280328e-01f, -9.20040905e-01f, -2.15721771e-01f, 2.67388523e-01f, 2.76987433e-01f, -3.69229168e-02f, -9.35715079e-01f, 4.57501858e-01f,
    -5.78513443e-01f, -4.91836101e-01f, 5.21034420e-01f, -2.24031396e-02f, 3.02401394e-01f, -9.94347274e-01f, 1.57578498e-01f, -5.84863782e-01f,
    4.30759758e-01f, 1.77548081e-01f, -3.76972318e-01f, -3.29788476e-01f, 1.75417334e-01f, -5.74012220e-01f, -8.95491600e-01f, 6.09951019e-02f,
    1.84565857e-01f, -7.91721523e-01f, 9.34285164e-01f, 1.20929964e-01f, 4.51878607e-01f, -6.01419389e-01f, -5.63289344e-01f, -2.75623560e-01f,
    6.58212841e-01f, 2.35197619e-02f, -1.02301918e-01f, 5.70559144e-01f, -1.66975692e-01f, 1.75458893e-01f, 9.20042545e-02f, 9.02846038e-01f,
    3.75027776e-01f, -2.48387933e-01f, 3.89412045e-01f, -2.43391693e-02f, 1.98341265e-01f, -3.24595496e-02f, 8.15553248e-01f, -1.17363310e+00f,
    1.09792560e-01f, 1.02220333e+00f, -5.76482236e-01f, -3.69849503e-01f, 9.58793238e-02f, 3.39453220e-01f, 1.05682105e-01f, -1.99034214e-01f,
    5.52735589e-02f, -1.41884863e-01f, -3.47208828e-01f, -5.82619131e-01f, 9.50221360e-01f, 1.02300413e-01f, -2.75127351e-01f, 5.25068820e-01f,
    -1.03228486e+00f, -4.55522984e-01f, 4.46702838e-02f, 5.64583018e-02f, 2.41278380e-01f, -3.89686674e-01f, 5.67582175e-02f, -2.51955390e-01f,
    -3.49069506e-01f, -6.89336360e-01f, 7.54491866e-01f, -2.77227491e-01f, 4.93262187e-02f, -4.08691049e-01f, -2.34805733e-01f, -6.08053088e-01f,
    -3.38438988e-01f, -3.41621578e-01f, -4.43907268e-02f, 2.87681431e-01f, 7.59837210e-01f, -1.16684116e-01f, -1.26070883e-02f, -1.08046067e+00f,
    -5.54077268e-01f, 7.34702706e-01f, 3.08104724e-01f, 2.97927447e-02f, 2.34454572e-01f, -6.14710450e-01f, 1.99402407e-01f, -9.57568958e-02f,
    5.76249838e-01f, -9.13363546e-02f, -4.04498041e-01f, 1.19143605e-01f, -1.97806254e-01f, 3.25146526e-01f, -3.26636732e-02f, 2.78547794e-01f,
};

static const float audio_b0[32] = {
    9.54346135e-02f, -1.81107178e-01f, 5.45772314e-02f, 1.15992643e-01f, 9.58731622e-02f, 2.62214899e-01f, 7.36293271e-02f, -7.43977502e-02f,
    1.42495692e-01f, 2.02630773e-01f, 1.33249953e-01f, -2.10020207e-02f, 3.90234441e-02f, -9.68846530e-02f, 1.40660807e-01f, 1.08799636e-01f,
    2.95072913e-01f, 1.97537899e-01f, 1.93714634e-01f, 3.62531915e-02f, 2.15076745e-01f, 8.06520134e-02f, 2.73371369e-01f, 1.40124232e-01f,
    8.94190446e-02f, 1.41014203e-01f, 5.86681552e-02f, -7.35663250e-03f, 1.86036125e-01f, 4.09358367e-02f, 6.09049127e-02f, 1.82411104e-01f,
};

static const float audio_w1[512] = {
    -2.49774396e-01f, 3.86121064e-01f, 1.56697869e-01f, 7.41876885e-02f, 2.15994745e-01f, 2.73363382e-01f, 2.35659570e-01f, 2.05114648e-01f,
    1.61183044e-01f, -2.71073468e-02f, 1.85738117e-01f, -1.39454305e-01f, -2.12195247e-01f, -6.73321187e-02f, -3.63082677e-01f, -3.84173989e-01f,
    7.66235515e-02f, -3.24690014e-01f, -7.53201246e-02f, 5.51718613e-03f, -5.41007966e-02f, -3.05945754e-01f, -1.96581557e-01f, -7.42726445e-01f,
    3.30294594e-02f, 1.73373893e-01f, 3.37224424e-01f, 1.36317894e-01f, 5.05079508e-01f, 1.61441326e-01f, 1.67544961e-01f, 2.32632101e-01f,
    3.41369510e-01f, -1.25106186e-01f, 1.61637560e-01f, 8.50245059e-02f, -2.75826484e-01f, 4.81239855e-01f, -3.27871032e-02f, -1.69935733e-01f,
    -2.20230833e-01f, 2.77449965e-01f, 4.35933024e-01f, -1.70287907e-01f, 2.27752458e-02f, -1.55207619e-01f, -5.36704779e-01f, 3.50854658e-02f,
    -2.91032881e-01f, 5.14293373e-01f, 7.38989562e-02f, -1.67483091e-01f, 2.05681622e-01f, -9.82534233e-03f, -3.51863593e-01f, 6.32423609e-02f,
    1.06173970e-01f, -2.50001233e-02f, 5.00064373e-01f, 1.74180940e-02f, 5.43814182e-01f, 4.37624305e-01f, 5.40045261e-01f, 1.52689189e-01f,
    2.56554902e-01f, -6.51911646e-03f, 6.36688948e-01f, -3.51635337e-01f, 3.08173507e-01f, 8.88258219e-02f, -3.12126547e-01f, 2.41544828e-01f,
    -1.99951772e-02f, 1.85650423e-01f, 5.66217244e-01f, -3.11853081e-01f, 4.04209018e-01f, 2.08472431e-01f, 9.75634679e-02f, -4.42548692e-01f,
    1.88930526e-01f, 2.80510843e-01f, 6.28632963e-01f, -4.18051064e-01f, -8.14861134e-02f, 6.92579269e-01f, -5.53600550e-01f, 4.22943205e-01f,
    6.97509944e-02f, -1.87631398e-01f, -7.99816989e-05f, 7.50129402e-01f, 1.41485304e-01f, 1.25061432e-02f, -1.83497220e-01f, 2.03974128e-01f,
    -4.65732329e-02f, -1.59857199e-01f, -8.77426192e-02f, 1.79987907e-01f, 6.68820292e-02f, 4.33312684e-01f, 3.22223276e-01f, -5.19924164e-02f,
    1.89070985e-01f, -3.10984831e-02f, -2.09602416e-02f, 5.96863031e-02f, -7.02623650e-02f, 3.55727792e-01f, 3.36876333e-01f, -2.55529493e-01f,
    5.16672969e-01f, 1.05135649e-01f, -5.08051455e-01f, 1.11232825e-01f, 2.27997586e-01f, -1.25301123e-01f, 5.56694746e-01f, -2.18392745e-01f,
    1.38220981e-01f, -1.37287289e-01f, -1.26910567e-01f, 2.11983204e-01f, -8.60757083e-02f, -2.84912512e-02f, -1.21269435e-01f, -2.59872109e-01f,
    -1.32048279e-01f, 9.09699917e-01f, -2.22478509e-01f, 7.26829320e-02f, 1.18261009e-01f, 1.91640526e-01f, 2.34772682e-01f, -2.18151361e-01f,
    -4.31012809e-01f, -1.51047409e-01f, 1.44977525e-01f, -3.04722697e-01f, 3.08014661e-01f, 6.74179867e-02f, 4.30931538e-01f, -2.02745557e-01f,
    -9.99906585e-02f, -3.24882984e-01f, 1.36154041e-01f, 3.13641936e-01f, 1.81771547e-01f, -3.98540497e-01f, -5.92582114e-03f, -1.92852374e-02f,
    -5.38290739e-01f, 3.76283079e-02f, 1.64192736e-01f, 7.96335518e-01f, 2.60837287e-01f, -3.10358286e-01f, -2.18368784e-01f, 4.34083402e-01f,
    -1.96535140e-01f, 2.11088702e-01f, -7.67013952e-02f, -4.31448920e-03f, -2.88920105e-01f, 2.44117919e-02f, -1.82549790e-01f, 5.09511352e-01f,
    -1.05099559e-01f, 5.89599133e-01f, 2.15958416e-01f, 1.44419014e-01f, -1.29098251e-01f, 1.30878706e-02f, -1.33753926e-01f, 8.90797228e-02f,
    -1.41711012e-01f, 5.97051203e-01f, 2.87957966e-01f, -2.53044460e-02f, 2.35279292e-01f, 2.07136981e-02f, -3.69420886e-01f, 1.37111142e-01f,
    -1.04958378e-02f, -5.69795594e-02f, 7.50528336e-01f, 1.01962775e-01f, -1.70566291e-01f, 1.02541685e-01f, 1.48768211e-02f, -1.45807967e-01f,
    1.84671372e-01f, -1.46030784e-01f, -1.04364246e-01f, -1.46131411e-01f, -9.72419828e-02f, 1.52602807e-01f, -2.24310726e-01f, 2.39479989e-01f,
    6.58627078e-02f, -7.92574108e-01f, 4.48630959e-01f, 1.63861781e-01f, -5.64446263e-02f, -1.72013775e-01f, 1.99186400e-01f, -2.39937231e-01f,
    -1.17035434e-02f, -1.21297173e-01f, -2.34738693e-01f, -2.78965265e-01f, -4.00122732e-01f, 5.43635376e-02f, -2.73230165e-01f, -3.81279230e-01f,
    -1.14682771e-01f, 5.74352667e-02f, -1.49761260e-01f, 1.16644017e-01f, 4.72588480e-01f, 3.16641033e-01f, -2.90269796e-02f, 8.45248401e-01f,
    4.97082800e-01f, -3.70475054e-01f, 5.00934184e-01f, -1.34930655e-01f, -3.46979648e-01f, 1.87500909e-01f, 9.68148336e-02f, 3.71188313e-01f,
    1.80636004e-01f, 3.35354716e-01f, 2.90541947e-01f, 2.36742780e-01f, 2.95949012e-01f, -1.35200202e-01f, -1.06511973e-01f, 2.76421964e-01f,
    4.49291393e-02f, 3.73692155e-01f, 4.24960554e-01f, 8.46068338e-02f, -1.75986990e-01f, 5.08445740e-01f, 1.92081571e-01f, 4.22356039e-01f,
    -6.07632101e-01f, 3.05495262e-02f, 3.50276619e-01f, -3.11543912e-01f, -3.22979867e-01f, -3.00079763e-01f, 8.27762578e-03f, -1.91780940e-01f,
    1.97026476e-01f, 2.04352722e-01f, 4.83756065e-02f, 2.65565485e-01f, 6.64765090e-02f, -5.45919597e-01f, -2.57302284e-01f, 5.45512617e-01f,
    1.30896673e-01f, -3.92625481e-01f, 9.90940928e-02f, -2.14571834e-01f, -3.13113809e-01f, 1.69648260e-01f, -3.90199274e-01f, -5.12297928e-01f,
    -3.40114683e-01f, 8.48610997e-02f, 4.59922969e-01f, 1.13216147e-01f, -5.43001890e-01f, 2.38484859e-01f, 8.15296546e-02f, 3.07791322e-01f,
    -3.47751319e-01f, -9.83964354e-02f, 4.49191391e-01f, 4.70634736e-02f, 9.72232074e-02f, 2.10099176e-01f, -4.83483046e-01f, -2.47824773e-01f,
    -2.75680125e-01f, -1.53214365e-01f, 9.80644897e-02f, 1.97299674e-01f, -3.34283799e-01f, 8.03851306e-01f, 4.38642710e-01f, 3.10691178e-01f,
    3.92012268e-01f, -1.97124016e-02f, -3.20613116e-01f, -3.73457313e-01f, 2.21030027e-01f, -1.43804029e-01f, -3.84194225e-01f, 1.94101334e-01f,
    3.11133191e-02f, -2.91216046e-01f, -3.91246587e-01f, 3.03396225e-01f, -2.04229623e-01f, -4.14691001e-01f, 2.57300079e-01f, 1.39270633e-01f,
    3.59429508e-01f, 1.97492421e-01f, 9.16834772e-02f, 2.59084284e-01f, 1.79341882e-01f, 3.52081895e-01f, -8.75902325e-02f, 8.43916386e-02f,
    -1.79200530e-01f, 1.69463567e-02f, 2.30457902e-01f, 3.22747231e-01f, -7.81152621e-02f, 1.15324318e-01f, -6.91828951e-02f, 1.51302397e-01f,
    2.36434251e-01f, 8.53051394e-02f, -4.94272150e-02f, 9.28327858e-01f, -1.01318628e-01f, 6.25571162e-02f, 1.02236621e-01f, -3.03574055e-01f,
    2.15511620e-02f, -1.03289694e-01f, -9.79646966e-02f, -2.58237123e-01f, 4.03064489e-02f, 2.89030075e-01f, -4.65017974e-01f, 8.18877295e-02f,
    -4.38948795e-02f, 6.04107380e-01f, 5.16519584e-02f, -2.64450192e-01f, 2.61583745e-01f, 2.68710434e-01f, -1.73692167e-01f, 2.33126819e-01f,
    3.77925336e-01f, 5.39752960e-01f, 3.88125092e-01f, -3.81596684e-01f, -3.62824798e-01f, -2.95280039e-01f, 1.01281144e-01f, 4.21330363e-01f,
    -4.51391101e-01f, -5.07268965e-01f, -3.44727665e-01f, 3.72885615e-01f, -2.34727159e-01f, -3.82644460e-02f, -1.56927288e-01f, -1.94437623e-01f,
    -1.32966235e-01f, 4.27853644e-01f, 2.41823196e-01f, 1.79813355e-01f, 4.48117554e-01f, 2.26528481e-01f, -2.19403565e-01f, 2.03879580e-01f,
    -4.67506379e-01f, -1.95007160e-01f, 2.89952576e-01f, -1.28794551e-01f, 4.32632901e-02f, 4.24857080e-01f, 8.54526926e-03f, -1.18387349e-01f,
    -1.88878536e-01f, 1.66724809e-02f, -4.69788350e-02f, -8.59618112e-02f, -2.79966965e-02f, 2.03157857e-01f, -2.82595064e-02f, 9.03868824e-02f,
    -2.99404114e-01f, 3.11492998e-02f, 2.68467158e-01f, -3.56369734e-01f, 2.68100858e-01f, 1.33527175e-01f, 3.18846315e-01f, 6.26963750e-02f,
    -8.86777043e-02f, -1.85956344e-01f, -1.25593737e-01f, 2.45292217e-01f, -1.57242462e-01f, 7.52117634e-02f, 3.77544492e-01f, 4.62845743e-01f,
    1.29716843e-01f, -1.97837889e-01f, 1.01896219e-01f, 2.06350654e-01f, -8.89877602e-02f, 2.89480746e-01f, 8.22154358e-02f, -1.68189853e-01f,
    2.52426296e-01f, -4.05886859e-01f, -3.36348750e-02f, 6.01327479e-01f, 6.04722202e-01f, -3.78947258e-01f, -1.55101761e-01f, -4.65694778e-02f,
    -8.17425728e-01f, 5.09749711e-01f, 1.66292250e-01f, 4.88852598e-02f, -4.52387154e-01f, 5.81483878e-02f, 3.06973577e-01f, 3.69213402e-01f,
    -1.54506296e-01f, 3.33314151e-01f, -2.04813778e-01f, -7.68644810e-02f, 7.03005254e-01f, 5.85547507e-01f, 2.60055602e-01f, -3.99460882e-01f,
    1.49019554e-01f, -2.72333622e-02f, 1.14207998e-01f, -7.95695707e-02f, -4.57407981e-02f, 2.41920978e-01f, -2.32826490e-02f, -7.06126168e-02f,
    -1.16524398e-02f, 7.18846470e-02f, -3.81319880e-01f, 1.56735331e-01f, -1.47811379e-02f, 2.29297280e-01f, 6.83181167e-01f, -1.98565677e-01f,
    -6.84918091e-02f, -1.22110300e-01f, -1.30517945e-01f, -3.21218222e-01f, 1.08581707e-01f, -1.68899536e-01f, 5.06964803e-01f, 5.54503687e-02f,
    -3.27123225e-01f, 5.00527583e-02f, 1.15291953e-01f, -3.57426673e-01f, -9.80934426e-02f, 1.96489021e-01f, 5.00328422e-01f, -1.97456002e-01f,
    9.15124863e-02f, -2.95843959e-01f, -2.77202465e-02f, -2.37073481e-01f, 3.76172364e-01f, 2.82278776e-01f, 1.90480337e-01f, -1.55988738e-01f,
    -2.33011618e-01f, -1.38096541e-01f, 3.06919754e-01f, 8.05795074e-01f, 9.64089870e-01f, 9.07422677e-02f, 2.96445847e-01f, 2.35589281e-01f,
    -8.07018280e-02f, 5.05082533e-02f, -3.93950999e-01f, -1.34092793e-01f, 6.61444724e-01f, -1.03865229e-01f, 7.00005651e-01f, -6.57292426e-01f,
    -2.07798017e-04f, -3.84272546e-01f, 2.13484883e-01f, 5.61789460e-02f, -3.24712545e-01f, 8.02480578e-01f, 4.69631664e-02f, 2.49151632e-01f,
    -1.16204694e-01f, -2.37970904e-01f, -8.51577148e-02f, 1.43101335e-01f, -2.33270273e-01f, -1.37016073e-01f, -3.36575478e-01f, 4.05129641e-01f,
};

static const float audio_b1[16] = {
    5.47377430e-02f, 4.17673104e-02f, 1.66774899e-01f, -3.70571688e-02f, -5.35850897e-02f, 1.30359277e-01f, -1.85857341e-03f, 1.95567474e-01f,
    -2.67109107e-02f, -1.40069621e-02f, 1.34812474e-01f, 2.30236903e-01f, 1.93913989e-02f, 4.60279807e-02f, -7.45477527e-02f, -3.28115597e-02f,
};

static const float audio_w2[80] = {
    1.99895784e-01f, 2.58775741e-01f, -2.86290467e-01f, -5.20978928e-01f, -4.63901401e-01f, -2.59320825e-01f, -7.91097224e-01f, 1.04420388e+00f,
    -4.83483113e-02f, -5.75277150e-01f, -2.59675145e-01f, 4.99819219e-01f, 1.96650485e-03f, -7.08124220e-01f, 7.60718346e-01f, 1.63955659e-01f,
    8.34348559e-01f, -5.85499585e-01f, 1.33853245e+00f, -8.35797638e-02f, -1.80386543e-01f, 7.02029169e-02f, 4.20984715e-01f, 9.83710170e-01f,
    -6.59579813e-01f, -3.41281712e-01f, -7.20888615e-01f, -4.85904396e-01f, -4.27148752e-02f, 1.03914392e+00f, -3.16893220e-01f, -2.96129733e-01f,
    -4.82080698e-01f, 5.52479625e-01f, -3.70319262e-02f, -1.15594268e+00f, 3.51714700e-01f, -2.41023391e-01f, -6.11395717e-01f, 3.73776317e-01f,
    5.73002622e-02f, -1.22412637e-01f, -7.28640109e-02f, -5.15799046e-01f, -4.01930124e-01f, 5.68996847e-01f, 6.59620389e-02f, -3.08747977e-01f,
    4.92296547e-01f, -1.69899672e-01f, -1.65952966e-01f, -7.53467157e-02f, 5.60802102e-01f, -5.20696163e-01f, 1.17692597e-01f, 5.13110518e-01f,
    8.78357172e-01f, -4.32026476e-01f, -6.04411006e-01f, -3.00167710e-01f, 6.13697708e-01f, -9.56706762e-01f, 1.16817646e-01f, 5.60165286e-01f,
    3.57894562e-02f, 2.32513487e-01f, 6.70066774e-02f, 3.40704590e-01f, 4.71446179e-02f, -3.85734141e-01f, -5.89756429e-01f, 1.92460075e-01f,
    1.33270785e-01f, 8.91633749e-01f, -7.13671446e-01f, 1.05007064e+00f, -7.48843491e-01f, 3.46394442e-02f, 5.30535690e-02f, -1.02936111e-01f,
};

static const float audio_b2[5] = {
    2.46677008e-02f, 9.77398455e-02f, 1.19671613e-01f, -2.88125336e-01f, 4.60461751e-02f,
};

static const float *audio_weights[3] = {audio_w0, audio_w1, audio_w2};
static const float *audio_biases[3]  = {audio_b0, audio_b1, audio_b2};
static const char  audio_activations[] = "rrs";

static const float audio_input_mean[10] = {3.34192127e-01f,4.20941234e-01f,2.81747103e-01f,1.16664000e-01f,1.17272151e+00f,6.19032104e+02f,4.30085450e-01f,6.79293945e+02f,4.14134026e-01f,2.51092941e-01f};
static const float audio_input_std[10]  = {3.37311983e-01f,3.27522218e-01f,2.01474294e-01f,9.61686000e-02f,3.85723650e-01f,3.33461182e+02f,2.01021776e-01f,4.38666260e+02f,2.45858967e-01f,1.11244410e-01f};

#endif 
